%YAML:1.0
---
depth_detector: !!opencv-object-detector-hog
   winSize: [ 64, 64 ]
   blockSize: [ 16, 16 ]
   blockStride: [ 8, 8 ]
   cellSize: [ 8, 8 ]
   nbins: 9
   derivAperture: 1
   winSigma: 4.
   histogramNormType: 0
   L2HysThreshold: 2.0000000000000001e-01
   gammaCorrection: 1
   nlevels: 64
   signedGradient: 0
   SVMDetector: [ -2.86889747e-02, 1.87461404e-03, 4.01286082e-03,
       -1.48590775e-02, -4.25368994e-02, -1.97325032e-02,
       -2.10497379e-02, -2.75885910e-02, -3.68715003e-02,
       -2.33637616e-02, -1.26840891e-02, 8.67703930e-04, -1.06043331e-02,
       -4.49848995e-02, -2.47354768e-02, -2.35042069e-02,
       -1.67622231e-02, -1.87582839e-02, -1.17526362e-02, 1.85311288e-02,
       3.40735577e-02, -3.28354817e-03, -1.27029298e-02, -1.13522364e-02,
       -1.75581779e-02, -1.48917949e-02, -1.93109233e-02,
       -9.75286646e-04, 2.90012006e-02, 4.08333912e-02, 9.37196892e-03,
       2.45269202e-03, -1.11809280e-02, -1.75732225e-02, -2.92273681e-03,
       -1.91963813e-03, -1.72293168e-02, -2.23238692e-02,
       -1.58913359e-02, -1.55777493e-02, -4.17427532e-02,
       -1.96198151e-02, -1.85606051e-02, -3.44561902e-03, 1.95944007e-03,
       -1.37540919e-03, -1.16396444e-02, -1.65465698e-02,
       -2.31504850e-02, -4.88976948e-02, -2.02694610e-02,
       -1.51471198e-02, -1.88865315e-03, 4.40402376e-03, -9.14467592e-03,
       4.84611170e-04, 1.44998245e-02, -6.37585251e-03, -2.33636871e-02,
       -1.38543257e-02, -2.28681862e-02, -8.45814403e-03, 4.13221933e-05,
       4.88551147e-03, 8.33281409e-03, 1.53314369e-02, 6.21803477e-03,
       1.33463647e-02, -1.03394082e-02, -1.58180539e-02, -9.65995993e-03,
       6.75261160e-03, -9.54050384e-03, -1.98291522e-02, -2.24396233e-02,
       -2.35731266e-02, -4.34294529e-02, -1.87062994e-02,
       -1.02802943e-02, 7.35101476e-03, 2.43156357e-03, -2.71364651e-03,
       -1.62061471e-02, 3.56488628e-03, -1.47825936e-02, -3.92293036e-02,
       -1.76609922e-02, -6.46188529e-03, 1.70780197e-02, 1.07387314e-02,
       1.11160558e-02, 4.28568246e-03, -1.09725967e-02, -5.06675476e-03,
       -2.37163398e-02, -1.67901572e-02, -1.64992232e-02, 1.85954641e-03,
       1.31065669e-02, 2.17114259e-02, 2.23198570e-02, 2.27661449e-02,
       2.80638337e-02, -1.41057267e-03, -1.80476736e-02, -9.83759947e-03,
       1.47050088e-02, 1.90235786e-02, -2.22567352e-03, -1.35594839e-02,
       -8.22690967e-03, -1.80719476e-02, -3.55966464e-02,
       -1.65713392e-02, -3.05070612e-03, 9.60385427e-03, 7.21291825e-03,
       1.30922915e-02, 8.45677592e-03, -2.79845408e-04, -2.53520980e-02,
       -4.14538644e-02, -1.56249851e-02, -6.31841272e-03,
       -1.74973707e-03, 8.07450805e-03, 8.51388928e-03, -2.86054070e-04,
       1.39093474e-02, 3.68948444e-03, -2.90721506e-02, -1.29380301e-02,
       -4.28752508e-03, 1.76808871e-02, 1.96870249e-02, 5.53111061e-02,
       1.47285340e-02, 2.51646880e-02, -5.36336750e-03, -2.79379580e-02,
       -8.41086917e-03, 1.25132650e-02, 2.30175555e-02, 4.52104025e-02,
       1.18568772e-02, -7.95186125e-03, -1.09096533e-02, -2.56148111e-02,
       -4.06529903e-02, -1.17770825e-02, 1.14453193e-02, 9.17702913e-03,
       1.51828518e-02, 1.04041472e-02, -2.24268865e-02, -2.91608553e-02,
       -3.51959318e-02, -5.59145957e-02, -3.02481540e-02,
       -2.08067913e-02, -7.46920612e-03, 1.44660110e-02, 3.03939302e-02,
       5.22285374e-03, 6.56034844e-03, -1.69670600e-02, -1.09654283e-02,
       1.27477990e-02, 6.58383369e-02, 5.58833703e-02, 5.25089838e-02,
       1.72091387e-02, 9.37139848e-04, -1.67512968e-02, -3.12430244e-02,
       -3.91917527e-02, -1.70513112e-02, 1.46230068e-02, 2.58510765e-02,
       3.18840444e-02, 1.58558991e-02, -2.52159741e-02, -3.58756520e-02,
       -3.50546204e-02, -5.34035601e-02, -3.14154178e-02,
       -1.80580989e-02, -6.42041035e-04, 2.11108644e-02, -7.85084092e-04,
       -3.65916677e-02, -4.12461348e-02, -3.61740105e-02,
       -5.44298850e-02, -3.33754458e-02, -1.38592813e-02,
       -2.61752144e-03, 1.56250708e-02, 2.27494147e-02, -7.60494964e-03,
       -1.96663607e-02, -2.79114246e-02, 6.27265917e-03, 3.15018813e-03,
       5.79941757e-02, 5.89937195e-02, 4.42718565e-02, 1.02303736e-02,
       -7.14457966e-03, -2.26525050e-02, -3.33811305e-02,
       -4.55960222e-02, -2.63325684e-02, 7.04531383e-04, 1.40697919e-02,
       1.14364764e-02, -3.37289949e-03, -4.49760221e-02, -4.08288166e-02,
       -3.61059867e-02, -5.12600653e-02, -3.07110120e-02,
       -9.06229892e-04, 3.74929118e-03, 1.67307854e-02, -3.29686403e-02,
       -6.10174984e-02, -5.93819395e-02, -3.75138968e-02,
       -5.58308400e-02, -3.45380865e-02, -1.79792754e-02,
       -2.82309507e-03, -1.20426007e-02, 2.39440985e-02, -1.67508684e-02,
       -2.82497108e-02, -3.17979753e-02, -2.55799312e-02, 5.14008710e-03,
       4.72636707e-02, 2.68080197e-02, 1.71048660e-02, 6.93851011e-03,
       -4.29053381e-02, -5.54902628e-02, -3.85272317e-02,
       -3.50828916e-02, -1.61318071e-02, 2.30642352e-02, 2.94583198e-02,
       2.85684392e-02, -1.43808676e-02, 2.34470554e-02, 4.10811119e-02,
       5.66339772e-03, -1.34369414e-02, -1.59756653e-02, -3.35113816e-02,
       -2.85573564e-02, -2.22601779e-02, -5.40303625e-03, 8.03150237e-03,
       3.23662385e-02, 1.21402554e-02, -1.69058833e-02, -2.23026201e-02,
       -5.02686873e-02, -2.65138149e-02, -1.15600750e-02,
       -8.50510783e-04, 2.39452738e-02, 4.27904762e-02, 1.15934480e-02,
       -1.07539734e-02, -1.54425604e-02, -3.31276245e-02,
       -3.09623834e-02, -2.29577702e-02, 3.28162052e-02, 3.24180759e-02,
       5.76624200e-02, 3.00120469e-02, 2.09802501e-02, -1.72050446e-02,
       -3.79546173e-02, -2.38573346e-02, 1.20398914e-02, -1.48245553e-02,
       -3.40553676e-03, 1.94874760e-02, 6.24169828e-03, -1.98711567e-02,
       -1.67860445e-02, -4.32871021e-02, -1.64551791e-02,
       -9.08604171e-03, -1.68517288e-02, -3.67682311e-03, 1.56636275e-02,
       1.22456998e-02, -7.71082612e-03, -1.44794574e-02, -3.81653756e-02,
       -1.27789080e-02, -2.19146721e-02, 1.23487907e-02, 1.40512101e-02,
       2.69178580e-02, 2.38483232e-02, -1.00772148e-02, -2.02353597e-02,
       -3.65387313e-02, -6.10226067e-03, 2.10248344e-02, 9.74158291e-03,
       1.73978731e-02, 5.39188273e-02, 5.61192110e-02, 1.74581613e-02,
       -1.72112193e-02, -2.80130804e-02, 3.67898820e-03, 1.60562843e-02,
       -2.08438025e-03, 1.71815488e-03, 6.38165465e-03, 1.36841862e-02,
       -1.12542240e-02, -1.48847569e-02, -2.51086317e-02,
       -1.04825022e-02, -1.82504542e-02, 4.44483431e-03, 1.06603513e-02,
       1.85007062e-02, 2.13084612e-02, -1.50734344e-02, -1.40556740e-02,
       -1.23852370e-02, -1.50522892e-03, -1.67508516e-03, 1.32123090e-03,
       3.53144412e-03, 3.06933131e-02, 3.15815359e-02, 6.58485631e-04,
       -1.14281857e-02, -2.08959095e-02, -9.46588442e-03,
       -1.25594335e-02, 4.86580003e-03, 3.59856412e-02, 5.47347851e-02,
       4.19660062e-02, 2.38499343e-02, 4.89585614e-03, -1.29034417e-02,
       -1.38520906e-02, -1.77402934e-03, 6.31480291e-03, -1.51575741e-03,
       1.21369958e-02, 9.13168769e-03, -1.71660762e-02, -9.95481107e-03,
       -1.01827858e-02, 3.02558253e-03, 1.28494473e-02, 9.18161310e-03,
       -6.55123964e-03, 1.82863642e-02, -5.87809482e-04, -1.47280041e-02,
       -2.49848911e-03, 7.46201444e-03, 1.26690576e-02, 1.21530732e-02,
       -4.09600977e-03, 1.26739945e-02, 4.31587622e-02, 2.36322582e-02,
       7.35265622e-03, 3.11024953e-03, -1.14208823e-02, -9.11918934e-03,
       -6.10299362e-03, 1.04613956e-02, 1.66710038e-02, 3.84271331e-02,
       2.36138478e-02, 1.54553205e-02, 7.11495383e-03, 3.05089587e-03,
       1.25373518e-02, 1.51609629e-02, -8.05577636e-03, -5.70716336e-03,
       7.42014078e-03, -1.02832941e-02, -1.77448671e-02, 1.71966001e-03,
       2.66683828e-02, 2.50436869e-02, 2.83958681e-04, -9.38429963e-03,
       -5.35995408e-04, -5.80214569e-03, -1.95661895e-02,
       -3.71742547e-02, -1.22305062e-02, -5.04533411e-04, 1.39961746e-02,
       4.24906937e-03, -1.59541611e-03, 1.14527624e-02, 2.67917179e-02,
       1.24923978e-02, 6.05001987e-04, 1.63050853e-02, 2.79606022e-02,
       2.75882296e-02, 1.76354852e-02, -1.45249302e-02, 8.19143187e-03,
       6.02193316e-03, 1.26064068e-03, -2.21576616e-02, 2.45109829e-03,
       2.28483360e-02, 3.07993833e-02, 2.52856594e-03, -5.21259243e-03,
       -7.48273078e-03, -1.12100383e-02, -2.31932774e-02,
       -3.30772288e-02, -1.54254949e-02, 5.35262004e-03, 1.66634042e-02,
       1.55132590e-02, -1.84872455e-03, -1.07149174e-02, -2.13191286e-02,
       -2.61723064e-02, -4.27953899e-02, -2.11620498e-02,
       -8.17281101e-03, 3.63730034e-03, 5.26462309e-03, 6.04286510e-03,
       5.85569767e-03, -3.44308646e-04, -9.60092153e-03, -2.83916655e-04,
       1.95495761e-03, 4.42244224e-02, 5.35444990e-02, 2.17825398e-02,
       -7.75462622e-03, -1.57015063e-02, -2.35496797e-02,
       -2.14246493e-02, -3.98071781e-02, -1.23426551e-02, 1.38683300e-02,
       2.27023903e-02, 1.44943071e-03, -2.29949877e-03, -1.83254071e-02,
       -3.36837806e-02, -3.03145293e-02, -3.57728638e-02,
       -9.04820301e-03, 1.74959749e-02, 1.69318710e-02, -5.98128513e-03,
       -1.28858779e-02, -3.80341373e-02, -5.14426418e-02,
       -3.16780396e-02, -2.83995867e-02, -8.03093426e-04, 3.55880819e-02,
       3.49943750e-02, -9.45513428e-04, -1.50326407e-03, -2.25020535e-02,
       -3.41106877e-02, -1.75626259e-02, -4.01362980e-04, 2.93643344e-02,
       6.40279055e-02, 5.32929339e-02, 1.17626199e-02, -3.48326936e-02,
       -4.84492518e-02, -4.87684347e-02, -2.83211768e-02,
       -3.08886617e-02, 8.70677922e-03, 4.04992513e-02, 1.03093032e-02,
       -2.73532812e-02, -1.82672478e-02, 9.78387799e-03, 4.15061414e-02,
       9.36663430e-03, -2.08101328e-02, -1.18163228e-02, -3.02963648e-02,
       -2.56917514e-02, -2.87803356e-02, 5.72243799e-03, 1.82574838e-02,
       3.43097299e-02, 2.31266450e-02, -8.73613916e-03, -1.56528074e-02,
       -3.68229933e-02, -2.52597500e-02, -7.06923427e-03,
       -2.88941041e-02, 3.04569979e-03, 3.78820524e-02, 2.90788226e-02,
       -2.25125030e-02, 8.55502512e-05, -1.07927462e-02, -1.95321776e-02,
       -3.15868780e-02, 6.64432393e-03, 1.80648286e-02, 4.06371877e-02,
       3.68424058e-02, 2.67571751e-02, 2.43787235e-03, -1.14408107e-02,
       -1.11860614e-02, -5.88494027e-03, 6.52801199e-03, -4.37190291e-03,
       2.06466913e-02, 2.36713216e-02, -5.34145255e-03, -1.17906751e-02,
       -2.88184136e-02, -9.36236698e-03, 8.37192032e-03, -4.72040661e-03,
       -4.62593650e-03, 3.12517695e-02, 4.78206836e-02, -5.89978124e-04,
       -1.55881280e-02, -3.58794667e-02, -8.54967628e-03,
       -8.24588700e-04, 1.11725116e-02, 1.32220034e-02, 6.18296023e-03,
       1.43605899e-02, 2.96486728e-03, 3.70609597e-03, -1.62950233e-02,
       -7.78016541e-03, 1.32541370e-03, 9.41540580e-03, 1.91376023e-02,
       2.34721135e-02, 4.54180315e-02, 6.92070881e-03, 8.33064783e-03,
       -2.08288506e-02, 2.49170978e-03, 9.35762282e-03, -9.76187363e-03,
       2.90902699e-05, 2.79524848e-02, 2.99497060e-02, 1.34257227e-03,
       6.79966179e-04, -2.07296181e-02, -9.17102490e-03, -1.65736880e-02,
       -6.13425253e-03, 7.67511874e-03, 3.37556563e-02, 3.35668586e-02,
       2.64081694e-02, 3.02139539e-02, -2.06609885e-03, -1.79190263e-02,
       -1.63449217e-02, -1.47545468e-02, 1.95627636e-03, 1.06760161e-02,
       2.49539465e-02, 6.13329979e-03, 1.84274204e-02, -2.24130374e-04,
       7.04698358e-03, -7.43493345e-03, -5.79990493e-03, 2.43983269e-02,
       2.61254646e-02, 3.41271944e-02, 3.39998640e-02, 4.60269526e-02,
       1.26684783e-02, 7.47993495e-03, -1.33196241e-03, -7.28171039e-03,
       4.70396923e-03, 2.55427305e-02, 2.97483150e-02, 2.34317742e-02,
       2.05273777e-02, -8.39802064e-03, -2.10158378e-02, -1.34202400e-02,
       6.34847628e-03, 4.89125634e-03, 3.48489992e-02, 3.21635939e-02,
       2.61574071e-02, 1.91074461e-02, -1.05023468e-02, -2.18578544e-03,
       -3.60688464e-05, 4.01827786e-03, 1.74379461e-02, 2.39747018e-02,
       2.54418347e-02, 1.92684494e-02, 2.27972846e-02, -9.98598896e-03,
       1.69873750e-03, 1.11266621e-03, 2.32702009e-02, 1.54071730e-02,
       2.37433892e-02, 2.06189342e-02, 4.15495178e-03, 1.81584060e-02,
       -1.18354913e-02, 5.84912580e-03, 2.65123677e-02, 9.52109508e-03,
       5.58072142e-03, 2.40444578e-02, 1.06714303e-02, 2.80530215e-03,
       2.14051884e-02, 1.21611049e-02, 9.45515279e-03, 1.98481940e-02,
       -4.40898613e-04, -4.27205814e-03, -6.71746163e-03, 2.32676580e-03,
       -1.76046658e-02, 1.12019489e-02, 5.86233102e-03, 1.42113967e-02,
       1.51739521e-02, 3.53022702e-02, 1.01208072e-02, 1.10776350e-02,
       1.05805835e-02, -6.94550760e-03, 1.73126608e-02, 3.61537957e-03,
       2.63713766e-02, 4.67514843e-02, 1.69140417e-02, -1.04759019e-02,
       -1.46175250e-02, 8.96658003e-03, -1.83470193e-02, 9.43149440e-03,
       7.46124564e-03, 2.59731244e-02, 3.21281925e-02, 3.67577700e-03,
       -5.11437049e-03, -1.49459171e-03, -2.91126897e-03,
       -1.54007729e-02, 2.40934780e-03, 2.18869410e-02, 2.63368394e-02,
       9.08775162e-03, -2.41000932e-02, -1.70773268e-02, -1.26052555e-02,
       -8.27097986e-03, -2.83442121e-02, 3.66649264e-03, 2.02619955e-02,
       1.84473526e-02, -1.45651652e-02, 1.62369832e-02, -1.07246246e-02,
       -1.44759081e-02, 6.78877626e-03, -4.75896290e-03, 3.03544886e-02,
       3.29177864e-02, 3.83768268e-02, 3.04528251e-02, -2.07840689e-02,
       -3.09157707e-02, -2.14148611e-02, 3.04519944e-03, -1.22591648e-02,
       2.88925488e-02, 3.38797793e-02, 2.68152151e-02, 8.66229471e-04,
       -2.74554025e-02, -2.41326932e-02, -2.34006625e-02,
       -8.49101134e-03, -2.57874914e-02, 2.19272934e-02, 4.00185883e-02,
       1.53254755e-02, -1.93259008e-02, -3.81365903e-02, -3.98618206e-02,
       -3.20911184e-02, -2.08776090e-02, -2.40057521e-02, 1.56920440e-02,
       3.14802378e-02, 2.37122667e-03, -2.83436272e-02, -2.14240123e-02,
       -2.14413423e-02, -3.55407526e-03, 8.57016258e-03, 2.85554789e-02,
       6.43428490e-02, 8.62392485e-02, 3.41668725e-02, -2.04214547e-03,
       -4.20238525e-02, -4.28563543e-02, -3.16938162e-02,
       -1.36072058e-02, -5.93996653e-03, 3.76549214e-02, 4.63661216e-02,
       2.25650438e-04, -3.38888392e-02, -2.96169464e-02, -1.07362047e-02,
       3.28919329e-02, 3.31664868e-02, -1.62280630e-02, 7.01480219e-03,
       4.92370222e-03, -6.61353534e-03, -2.41759904e-02, -1.53353438e-02,
       -1.16520433e-03, 1.31648518e-02, 1.73993092e-02, 2.19454393e-02,
       2.12310702e-02, 7.02277059e-03, -8.00797949e-04, -1.42554529e-02,
       -3.25354971e-02, -3.06741744e-02, 1.70028359e-02, 2.88469493e-02,
       -1.48338694e-02, 1.26330312e-02, 1.04385531e-02, -2.43640179e-03,
       -2.41211355e-02, -2.34720483e-02, -9.95366834e-03, 8.95188283e-03,
       2.40382999e-02, 3.38031352e-02, 2.24651676e-02, 2.26009078e-02,
       -8.43784679e-03, -1.91859808e-02, 4.95958980e-03, 1.48708252e-02,
       1.66171393e-03, 5.01838000e-03, 8.14604852e-03, 1.93415377e-02,
       3.04944930e-03, -2.29587406e-03, -7.12704659e-03, 1.99858146e-03,
       1.03055295e-02, 2.17532218e-02, 2.97532789e-02, 1.40419593e-02,
       1.63111798e-02, 1.38780195e-03, 1.65445439e-03, -2.52063130e-03,
       -1.52420262e-02, 2.15766532e-03, -1.37918675e-03, 1.56284552e-02,
       1.86951179e-02, 2.09948309e-02, 1.53617254e-02, -9.19522345e-03,
       -1.76015832e-02, -6.56727189e-03, 1.48595404e-03, 4.24908736e-04,
       2.80065723e-02, 3.44395861e-02, 3.39414813e-02, 1.64154451e-02,
       -1.79565570e-03, -3.28410487e-03, -1.37001984e-02,
       -1.08028622e-02, -1.25017706e-02, 1.58685148e-02, 1.05084758e-02,
       2.97635142e-02, 1.28336949e-02, 8.01919121e-03, -6.46720966e-03,
       -7.68735830e-04, 1.66951897e-04, -2.97959172e-03, 2.18357127e-02,
       2.77796071e-02, 5.14111370e-02, 3.03222593e-02, 1.55273397e-02,
       2.42739698e-04, -6.65508583e-03, -1.22267529e-02, -1.01866927e-02,
       2.15836558e-02, 2.48765107e-02, 2.96973642e-02, 1.11762388e-02,
       7.55437138e-03, 5.52918250e-03, 5.44007728e-03, -6.72984315e-05,
       -1.32765109e-02, 2.11748555e-02, 3.07443943e-02, 4.39159870e-02,
       2.24054195e-02, 1.18812844e-02, 1.99983865e-02, 9.59848613e-03,
       1.24267405e-02, 3.67366499e-03, 1.51481330e-02, 7.87966605e-03,
       2.36169565e-02, 4.43746196e-03, 1.08779147e-02, 1.06814904e-02,
       2.15494949e-02, 2.04670783e-02, 9.88986064e-03, 1.59188956e-02,
       -1.21182967e-02, 9.50770918e-03, -7.25686690e-03, 1.37921609e-02,
       2.97327284e-02, 1.42984223e-02, 1.82301702e-03, -1.47733875e-02,
       1.48219550e-02, 7.24963564e-03, 2.42427029e-02, 5.35593182e-03,
       1.19014680e-02, 2.10015476e-02, 1.39770601e-02, 7.00232992e-03,
       -2.04630904e-02, 1.30976839e-02, -1.16788130e-02, 2.45263260e-02,
       6.92596659e-03, 3.53941619e-02, 2.91724708e-02, 3.09778526e-02,
       1.86108369e-02, 1.15201389e-02, 3.01223504e-03, -2.80139633e-02,
       4.07936377e-03, -3.63383349e-03, 2.61473693e-02, 3.29124741e-02,
       1.75788701e-02, 1.33275222e-02, 4.41844109e-03, 1.34318508e-02,
       -2.45769136e-02, 8.19862541e-03, -1.42269582e-03, 1.75609384e-02,
       2.11354364e-02, 2.66151577e-02, 2.15051081e-02, -8.70772451e-03,
       -2.10419367e-03, -2.99281143e-02, 8.75317864e-03, 4.23582690e-03,
       2.99310014e-02, 2.80314777e-02, 2.55515203e-02, 2.37334594e-02,
       -9.33532789e-03, 8.73613916e-03, -3.46449539e-02, 1.46290194e-02,
       8.75438191e-03, 1.90764442e-02, 8.25702772e-03, 1.73033345e-02,
       -5.18350769e-03, -1.37886265e-02, 1.08580878e-02, -1.09146079e-02,
       2.05329750e-02, 1.12468181e-02, 1.28258578e-02, 1.86332725e-02,
       -5.84836723e-03, -2.42626350e-02, -1.75385028e-02, 9.99205653e-03,
       1.68061000e-03, 2.49614380e-02, 1.46554103e-02, 1.11050094e-02,
       2.60006869e-03, 1.89785287e-02, 2.82076318e-02, 3.17424769e-03,
       1.08509082e-02, -1.83291696e-02, 1.74591970e-02, 1.17978165e-02,
       8.17200262e-03, 1.11613274e-02, 1.35900872e-03, -4.61329582e-05,
       -8.34077410e-03, -3.11547029e-03, -8.72158259e-03, 2.24513281e-02,
       1.21094920e-02, 5.42388018e-03, 1.11731491e-03, -2.23324709e-02,
       -1.91337392e-02, -6.12953911e-03, 1.86438803e-02, 2.70811841e-02,
       3.50492485e-02, 3.15090306e-02, 1.33250724e-03, -1.32384039e-02,
       -3.77310403e-02, -4.33246084e-02, -3.13856974e-02,
       -2.16693594e-03, 1.13250501e-02, 3.11627220e-02, 1.35778747e-02,
       -1.48754204e-02, -3.30976546e-02, -8.99529736e-03,
       -8.51185713e-03, 3.98210716e-03, 2.01898739e-02, 3.41234058e-02,
       3.44056934e-02, 2.03123558e-02, -2.89394148e-03, -1.30822575e-02,
       -2.49524135e-02, -3.62311229e-02, -2.97630969e-02, 2.00219378e-02,
       1.04754767e-03, 1.04867714e-02, -2.57444545e-03, -1.18168490e-02,
       -1.88650787e-02, -2.48110369e-02, -1.45079661e-02, 1.33256773e-02,
       2.96655875e-02, -7.06130685e-03, 1.34084141e-02, 2.43351255e-02,
       5.53311082e-03, -6.74545299e-03, -1.88571699e-02, -1.28356628e-02,
       1.18283192e-02, 2.36644782e-02, 4.01836000e-02, 1.81108639e-02,
       1.32570155e-02, 4.21215827e-03, -2.06131861e-03, -3.02305110e-02,
       -2.31207665e-02, -2.63383705e-03, 2.07835808e-02, 1.24952924e-02,
       2.06001308e-02, 3.12292762e-02, 8.73614755e-03, -6.80426322e-03,
       -2.64622411e-03, -1.63695738e-02, -6.96608704e-03, 1.63533241e-02,
       3.72271203e-02, 1.41089475e-02, 5.69152134e-03, 6.52238913e-03,
       2.05042716e-02, -1.09382682e-02, -1.33265019e-03, 2.23675440e-03,
       2.01895293e-02, 2.41019111e-02, 9.65457968e-03, 3.64058046e-03,
       3.54420207e-03, -5.11094520e-04, -5.15333330e-03, -1.41678599e-03,
       1.34082930e-02, 2.89018676e-02, 4.48157303e-02, 2.96755321e-02,
       2.86819879e-02, 8.30805022e-03, 4.05975617e-03, 3.07619222e-03,
       -1.05360467e-02, -4.48883884e-03, 1.93720348e-02, 2.08505671e-02,
       6.69959979e-03, -7.90542644e-03, -3.87672964e-03, 1.36629092e-02,
       -5.56683401e-03, 9.48317582e-04, 5.01090335e-03, 2.36653686e-02,
       2.89855469e-02, 1.86288301e-02, 1.51243061e-02, 1.20667256e-02,
       -2.93414411e-03, -4.29347344e-03, -3.64086893e-03, 1.34883607e-02,
       2.31385790e-02, 3.32784951e-02, 1.60778295e-02, 1.57794785e-02,
       1.01682963e-02, 6.97504450e-03, 7.03836419e-03, 5.15906420e-03,
       2.08961521e-03, 3.35281603e-02, 4.21414226e-02, 3.78686264e-02,
       1.71813536e-02, 1.08981766e-02, 2.33030859e-02, -1.54792955e-02,
       1.43205910e-03, 1.51389921e-02, 1.94600280e-02, 2.04009861e-02,
       1.22604715e-02, -3.85925500e-03, 1.17217738e-03, -9.41780116e-03,
       -1.27044627e-02, -1.09881386e-02, 2.18562353e-02, 3.69674340e-02,
       3.52072716e-02, 3.29837836e-02, 1.19751357e-02, 1.43269934e-02,
       9.43982508e-03, 1.36157591e-02, -3.05126025e-03, -1.16964728e-02,
       2.55790427e-02, 3.11173331e-02, 2.80438475e-02, 1.26188621e-02,
       8.68521444e-03, 1.94598380e-02, 1.91497244e-02, 4.23480617e-03,
       -6.10947842e-03, 2.20866613e-02, 1.59244575e-02, 3.83329503e-02,
       1.83607694e-02, 3.09789907e-02, 2.38367431e-02, -1.34886010e-02,
       -2.76818369e-02, 2.32105172e-04, 2.62520723e-02, 3.15719917e-02,
       2.59882621e-02, 2.31742505e-02, 1.90264005e-02, 1.38395634e-02,
       3.34641058e-03, -1.19433124e-02, 3.52002122e-03, 2.33772937e-02,
       2.75297333e-02, 3.27100679e-02, 1.08179105e-02, 2.14038212e-02,
       1.20301619e-02, 1.51162902e-02, 8.18012748e-03, -9.07201599e-03,
       6.46180287e-03, 2.86061899e-03, 2.67623328e-02, 3.02966926e-02,
       3.32108885e-02, 1.68498252e-02, 1.35171684e-02, 2.35854965e-02,
       4.65470646e-03, 1.32674864e-02, -7.13361753e-03, 1.82759874e-02,
       2.39508301e-02, 1.77079774e-02, 4.22239397e-03, -4.56090458e-03,
       -4.64727782e-04, 3.51447240e-03, 1.71715915e-02, 1.58371590e-02,
       2.38746330e-02, 8.72305781e-03, 1.35699091e-02, 2.32565519e-03,
       -1.80117562e-02, 1.83823071e-02, 1.72498338e-02, 1.92215424e-02,
       1.47404382e-03, 1.33213326e-02, 6.26038481e-03, 3.61154112e-03,
       -1.28207244e-02, 1.21815363e-02, 2.62004230e-02, 1.18151670e-02,
       7.86605757e-03, -1.79840811e-02, 1.47992065e-02, 2.20348574e-02,
       1.81010645e-02, 8.74462072e-03, 1.90721301e-03, 1.10045904e-02,
       1.19130183e-02, -5.82738593e-03, -1.87160503e-02, 1.43600069e-02,
       1.19489077e-02, 1.43089425e-02, 4.08878317e-03, -1.36646340e-02,
       9.87872388e-03, 6.69895299e-03, 1.23928143e-02, -1.07389446e-02,
       1.09846899e-02, 1.77951402e-03, 1.51082315e-02, -2.25102832e-03,
       -2.64276788e-02, 6.32558018e-03, 4.72124154e-03, 6.68535242e-04,
       -1.97351482e-02, 6.60602748e-03, -5.39529510e-03, 4.97358292e-03,
       -1.61072034e-02, 1.60758791e-03, 1.21736936e-02, 3.42920162e-02,
       2.22877860e-02, 1.60423070e-02, 1.82669517e-02, 1.14339283e-02,
       1.45352748e-03, -4.83306404e-03, -1.01180617e-02, -2.36783028e-02,
       -1.78694457e-03, 2.35810075e-02, -1.31246103e-02, -6.11691721e-05,
       -4.65684570e-03, -4.80285147e-03, -7.60880485e-03,
       -2.08468959e-02, 5.10656880e-03, 1.63768809e-02, 1.15606859e-02,
       1.98014823e-04, 1.39924735e-02, -6.98211696e-03, -1.66001897e-02,
       -2.31717043e-02, -1.89359132e-02, 2.65794597e-03, -1.17716449e-03,
       1.90899856e-02, -2.18109731e-02, -1.08324736e-02, -3.15358154e-02,
       -2.49356739e-02, -1.57812312e-02, -2.73427479e-02,
       -1.82739999e-02, -6.34863088e-03, 1.15353111e-02, 1.67586096e-02,
       1.17704514e-02, 1.83091126e-02, 1.84393730e-02, -4.79368697e-04,
       8.88638664e-03, -1.43237086e-02, -1.14670387e-02, 1.25066629e-02,
       4.34058830e-02, 2.28608474e-02, 1.09931035e-02, 7.57131213e-03,
       2.82303225e-02, -2.10812576e-02, -2.98964009e-02, -1.83222536e-02,
       4.25474439e-03, 1.81853324e-02, 2.53647771e-02, 2.96607446e-02,
       2.10878085e-02, 5.67249861e-03, 5.28568169e-03, -3.03065274e-02,
       -2.43604127e-02, 1.74251979e-03, 1.50714163e-02, 1.62554849e-02,
       4.39715385e-03, 2.36368575e-03, 9.47611593e-03, 1.10143209e-02,
       -8.95059388e-03, -9.37684905e-03, 7.41480384e-03, 2.32257564e-02,
       2.21932475e-02, -2.33430672e-03, -1.20814657e-02, 1.80620216e-02,
       -1.66568160e-03, 6.60778442e-03, -8.80058855e-03, 9.46088508e-03,
       3.65876481e-02, 3.91330495e-02, 2.46860441e-02, 9.01257060e-03,
       3.42472759e-03, 1.24643771e-02, -1.57250389e-02, -1.48700615e-02,
       9.30072216e-04, 1.95474420e-02, 2.78817285e-02, 6.16017543e-03,
       -1.94361769e-02, -4.41154232e-03, -1.33141913e-02,
       -2.96081853e-04, -2.57462077e-02, -6.16549561e-03, 2.62829140e-02,
       4.32652831e-02, 1.17059425e-02, -1.66918132e-02, -1.48523366e-02,
       -8.69113486e-03, 1.09852403e-02, 1.30909793e-02, 9.19816643e-03,
       2.07929816e-02, 2.06900835e-02, 9.34214238e-03, 6.69845566e-03,
       -1.10303343e-03, -1.17179435e-02, -5.67653030e-03, 3.06049809e-02,
       3.14892046e-02, 3.21760476e-02, 2.77798437e-02, 2.35229172e-02,
       2.51214597e-02, 1.49906883e-02, -1.10472143e-02, -2.80230702e-03,
       -6.45039929e-03, -4.89573134e-03, 1.39692351e-02, 3.23034972e-02,
       7.34802336e-03, -7.67219532e-03, -1.47767998e-02, -4.34753159e-03,
       4.32712585e-03, 1.41631048e-02, 1.41509017e-02, 1.63378045e-02,
       3.18689086e-02, 1.25051877e-02, 5.15898922e-03, 2.53493316e-03,
       -1.06276069e-02, -1.99319031e-02, 9.32251848e-03, 1.51122753e-02,
       2.62658335e-02, 2.11950615e-02, 3.03072836e-02, 3.22371647e-02,
       1.93107855e-02, 7.98702706e-03, 2.05786014e-03, 2.37362161e-02,
       2.09174361e-02, 1.98358651e-02, 2.24276930e-02, 4.17384179e-03,
       1.48877241e-02, 1.34528941e-02, 8.12263635e-04, -1.43376342e-03,
       4.81783273e-03, 6.42431388e-03, 8.05108342e-03, 2.04945151e-02,
       3.83549050e-04, 5.01976069e-03, 7.38035841e-03, 1.38892699e-02,
       1.83297172e-02, 2.10340917e-02, 1.13866515e-02, 1.11011358e-03,
       1.51634589e-02, 1.29479507e-03, 1.53415313e-03, 1.26708327e-02,
       -3.55145871e-03, 1.17475055e-02, 2.09960025e-02, 1.82103161e-02,
       1.52172511e-02, 2.22801790e-02, 9.12136119e-03, 7.33421184e-03,
       -4.85650497e-03, -9.69874673e-03, 2.74389517e-02, 2.58743372e-02,
       8.34286772e-03, 6.46717055e-03, 1.39233312e-02, 7.80587085e-03,
       9.95431002e-03, 4.70218918e-04, 3.36908270e-03, 3.69448140e-02,
       2.93796994e-02, 9.71087441e-03, 5.95921604e-03, 1.19268429e-02,
       -3.21383734e-04, -8.64093751e-03, -1.03773521e-02, 2.40470450e-02,
       3.08619943e-02, 2.14716289e-02, 1.60861842e-03, -1.17951334e-02,
       3.09319980e-03, -6.16294751e-03, 7.23082619e-03, -3.80772655e-03,
       -3.53526499e-04, 2.54201461e-02, 2.63733622e-02, 7.61512108e-03,
       9.80011653e-03, 1.61999036e-02, 4.59799962e-03, 1.57766826e-02,
       6.65233284e-03, -1.88249222e-03, 1.53679587e-02, 1.31924357e-02,
       1.90184766e-03, -5.59472898e-03, 1.20436773e-02, -7.43897306e-03,
       -1.79258687e-03, -3.81418504e-03, 1.29959518e-02, 3.33815329e-02,
       2.56426837e-02, 3.07700201e-03, -1.02294851e-02, -4.99459775e-03,
       -2.98076607e-02, -1.18731856e-02, 8.19906592e-03, 1.68891868e-03,
       1.86921377e-02, 6.28824672e-03, -8.37349147e-03, -2.65195109e-02,
       -2.64127133e-03, -3.61747853e-02, -2.60658152e-02,
       -9.59274918e-03, 1.29269054e-02, 2.95292847e-02, 4.54043522e-02,
       2.33972967e-02, 2.51186118e-02, 1.82366744e-02, -1.20655773e-02,
       -1.21249855e-02, -9.46387416e-04, 8.17868207e-03, 1.95080396e-02,
       1.59981474e-02, 1.28675681e-02, -1.46721415e-02, -1.23778712e-02,
       -3.34624387e-02, -2.70257033e-02, -7.18711270e-03, 6.67687925e-03,
       1.91055518e-02, 1.94535721e-02, 2.16938817e-04, -1.50864860e-02,
       -4.38209064e-03, -4.11135294e-02, -4.14326228e-02,
       -1.31527651e-02, 6.53464906e-03, 2.95849852e-02, 4.35389765e-02,
       6.59398595e-03, -2.48604044e-02, -1.88758206e-02, -5.60585335e-02,
       -6.21440522e-02, -2.87477020e-02, -2.05927677e-02,
       -3.24448049e-02, -2.09466890e-02, -5.70480479e-03, 5.57184033e-03,
       2.82422025e-02, 3.75707075e-02, 2.77622771e-02, 5.17111365e-03,
       5.08585572e-03, -2.05576122e-02, -1.97969545e-02, -4.71138395e-03,
       2.20480170e-02, 2.71054786e-02, 2.31874213e-02, 1.73842385e-02,
       1.05580781e-02, -2.27360521e-02, -3.08670364e-02, -3.18290181e-02,
       -2.19228063e-02, -1.33356638e-02, 2.39828452e-02, 3.47451717e-02,
       1.13632539e-02, -4.13907785e-03, -1.98607473e-03, -1.61495954e-02,
       -2.92481147e-02, -2.06759796e-02, -2.71759704e-02, 1.90809723e-02,
       1.68287419e-02, 8.27299245e-03, 4.22793021e-03, 1.17647089e-02,
       -5.05326781e-03, -1.42280580e-02, -1.11140301e-02, 2.71325605e-03,
       2.17096172e-02, 2.50545237e-02, -8.02664086e-03, 3.02414010e-05,
       -5.57563780e-03, 2.63545127e-03, -1.21374037e-02, -1.06854765e-02,
       2.22205259e-02, 4.40928042e-02, 4.49530445e-02, 9.33498517e-03,
       5.88050643e-05, 1.56809166e-02, -5.09404205e-03, -1.79623943e-02,
       -1.89603847e-02, -2.03200765e-02, 1.16919503e-02, 1.33411102e-02,
       3.69733199e-04, 2.64828117e-03, 1.79991480e-02, 6.49393164e-03,
       7.29946559e-03, -6.87172497e-03, -1.27014657e-02, 1.35603910e-02,
       2.01711599e-02, 7.07366038e-03, 1.41529208e-02, 5.58458222e-03,
       8.29332694e-03, -7.08271516e-03, -1.49124870e-02, -8.99534207e-03,
       1.42296785e-02, 1.37761217e-02, 1.47382659e-03, 1.82648574e-03,
       7.95734301e-03, 1.22710299e-02, -3.86204058e-03, -1.30264377e-02,
       -3.82292457e-03, 2.09963955e-02, 1.51974065e-02, 1.64939556e-02,
       1.38089610e-02, 3.22876945e-02, 1.72013845e-02, 6.72731455e-03,
       -1.36541259e-02, -3.30425277e-02, -2.46092095e-03, 8.08334269e-04,
       1.19838836e-02, 3.47509235e-02, 4.79153767e-02, 2.27164533e-02,
       2.69370689e-03, -1.73751060e-02, -2.93835998e-02, -2.66656629e-03,
       6.17919862e-03, 1.85012836e-02, 4.88811582e-02, 6.10768516e-03,
       4.43704147e-03, -2.01479811e-03, -9.11219604e-03, -1.32240849e-02,
       1.27207972e-02, 1.07357381e-02, 8.94032605e-03, 1.67025663e-02,
       3.38403657e-02, 2.14740429e-02, 8.48475378e-03, -4.18951316e-03,
       -2.11912487e-02, 7.44956126e-03, 1.97381619e-02, 7.06183165e-03,
       2.88831834e-02, 2.93017961e-02, 1.98820084e-02, 3.79834766e-03,
       -1.60428714e-02, -2.65099667e-02, -2.66349834e-05, 5.66241704e-03,
       8.65936093e-03, 3.47294547e-02, 4.25206386e-02, 2.30478607e-02,
       2.12448926e-04, -1.51811689e-02, -2.94775516e-02, -5.82269346e-03,
       7.98347930e-04, 3.82205495e-03, 4.66030203e-02, 4.07509357e-02,
       4.29110788e-02, 2.78992280e-02, -3.02285334e-04, -2.68829940e-03,
       4.87839989e-03, 1.45947421e-02, 1.15661155e-02, 2.10094638e-02,
       2.59180609e-02, 3.54411341e-02, 1.40056796e-02, -1.01699531e-02,
       -1.62955094e-02, -7.76869711e-03, -1.31693408e-02, 1.77024060e-03,
       6.16217265e-03, 4.67218123e-02, 2.87100393e-02, -1.18372892e-03,
       -1.78124793e-02, -3.06189414e-02, -1.00832842e-02, 1.53344159e-03,
       4.60566999e-03, 3.83188687e-02, 3.40799615e-02, 1.62934735e-02,
       -1.29993130e-02, -2.85492893e-02, -3.30408700e-02,
       -1.50743974e-02, -8.24302156e-03, 1.85805419e-03, 2.67226249e-02,
       4.93855961e-02, 6.58391267e-02, 4.84855250e-02, 9.59098991e-03,
       1.06731812e-02, -1.04019642e-02, -2.56881956e-02, -8.82491749e-03,
       3.29108313e-02, 1.57563705e-02, 2.36778222e-02, 1.53701371e-02,
       -8.87017418e-03, -1.08936215e-02, -1.12204598e-02,
       -3.92246805e-02, -2.93282270e-02, 4.35527880e-04, 3.33191827e-02,
       2.37545017e-02, -2.48312973e-03, -1.69271342e-02, -1.82244219e-02,
       -1.23691522e-02, -2.00115815e-02, -1.65028330e-02, 1.58514585e-02,
       1.47381071e-02, 3.29764038e-02, 1.94262732e-02, -7.59733608e-03,
       -1.38012227e-02, -1.33098364e-02, -3.64378914e-02,
       -3.99126932e-02, -3.09287268e-03, 5.77953048e-02, 6.03706986e-02,
       6.79899156e-02, 1.08157899e-02, 2.03330889e-02, -6.89059356e-03,
       -3.29432189e-02, -3.56419608e-02, 1.81953926e-02, -3.30129801e-03,
       4.24867347e-02, 5.53394929e-02, -1.86120998e-03, -1.57025475e-02,
       -1.79792214e-02, -5.45160361e-02, -7.16150552e-02,
       -4.41945195e-02, 1.00807697e-02, 4.25987914e-02, 4.70052920e-02,
       -1.53432656e-02, -1.61957480e-02, -1.62956193e-02,
       -4.77258228e-02, -6.51675910e-02, -1.90570857e-02,
       -2.65540071e-02, 2.33825408e-02, 1.86811965e-02, -2.38128249e-02,
       -3.96999978e-02, -2.30752435e-02, -6.59575090e-02,
       -8.56920481e-02, -5.61250299e-02, -1.10000229e+00 ]
